export const PROMOTED_BOTS_MANIFEST_VERSION = 1;

export const PROMOTED_BOTS = [
  {
    "id": "champion-20k-v1",
    "name": "Champ20kv1",
    "botType": "policy-value-search",
    "sourceFile": "./promoted/champion-20k-v1.json",
    "promotedAt": "2026-03-23T15:47:45.552Z",
    "notes": "20k supervised plus 1 round of league training",
    "isChampion": true,
    "originalBotId": "PolicyValueModel20k-model",
    "searchDepth": 2,
    "bot": {
      "version": 1,
      "format": "mancala-policy-value-model-v1",
      "modelType": "policy-value-search",
      "id": "champion-20k-v1",
      "name": "Champ20kv1",
      "encodingVersion": "policy-value-v1",
      "createdAt": "2026-03-20T07:20:46.056Z",
      "updatedAt": "2026-03-21T13:58:01.644Z",
      "architecture": {
        "inputLength": 24,
        "hiddenLayerSizes": [
          64,
          64,
          32
        ],
        "policySize": 6,
        "valueSize": 1,
        "hiddenActivation": "relu",
        "policyActivation": "linear",
        "valueActivation": "tanh"
      },
      "hiddenLayers": [
        {
          "inputSize": 24,
          "outputSize": 64,
          "activation": "relu",
          "weights": [
            [
              -0.5752570333295753,
              -0.027293813040292516,
              0.4558424722695369,
              -0.15613798914297877,
              -0.0994622607733639,
              0.21466692141764768,
              -0.21273505577401777,
              -0.12858479195549258,
              0.011578423415762033,
              0.19631098693695867,
              -0.5730470681677793,
              0.6517509514662533,
              0.2849403752556185,
              -0.2273386491282896,
              0.37997971939291725,
              -0.7947930062910831,
              0.23786207349210498,
              0.07301225653787462,
              0.36427458256877354,
              -0.17983810034712844,
              0.08200542832998817,
              -0.5890259632104914,
              0.09328497613400469,
              0.28864302986307017
            ],
            [
              -0.24358050430183784,
              0.10726712422089706,
              0.019490736366299024,
              -0.008039058610055862,
              -0.3187032484094497,
              -0.03190404122654304,
              -0.19001538458369172,
              -0.4206551940745717,
              -0.548282347469718,
              0.08935833607688055,
              0.19020978955453027,
              0.4543350381270411,
              0.6341126447253648,
              0.26340148298308447,
              0.07308200501141955,
              0.17444396770804316,
              0.04604477001451917,
              -0.014740773506556414,
              -0.012328553437570904,
              -0.33059175569932364,
              -0.2760623163490425,
              -0.943062224901993,
              -0.006598428225792629,
              0.042695748448940224
            ],
            [
              0.5614208296575733,
              -0.35320622299201093,
              0.4027023747536752,
              -0.00010133414175299803,
              0.15708375393988702,
              0.12677519882854799,
              -0.7897330434335736,
              0.9305479141248519,
              0.4291566248473869,
              0.3014178832146571,
              -0.42080028332891056,
              0.07123995909781719,
              -1.1606508643581508,
              -0.4666082086264668,
              0.01075822112683764,
              -0.35764996665617693,
              -0.2176232096038696,
              -0.21145201002297617,
              -0.21193794989935635,
              -0.38714009294571194,
              -0.06714362868015095,
              0.5772705883297579,
              -0.10783530429677252,
              -1.4208097502932324
            ],
            [
              0.758306336705981,
              0.22797385970537415,
              0.0931120848350599,
              -0.157873113671996,
              -0.34077309115383175,
              -0.6329306904959731,
              -0.47619615986615504,
              -0.08034977584931548,
              -0.6194798342965236,
              0.8619106832397162,
              0.25768960762046134,
              0.523291945132271,
              -0.7263717638828653,
              -0.061943431023263704,
              -0.24421086746185483,
              -0.5502920382069235,
              0.0330631259786363,
              0.0745733126190411,
              0.3083198597352954,
              -0.43450188408051493,
              -0.12485872281153426,
              -0.5039385154503796,
              0.3456866843095837,
              -0.9296266529523556
            ],
            [
              -0.1337681310524096,
              -0.1673130405536476,
              -0.7150934666240958,
              0.28924045914368096,
              0.5879792977341122,
              0.3434802266708471,
              -0.3257386314605257,
              0.2893823742412773,
              -1.1508596967557885,
              0.31174437273754263,
              0.04359397705928203,
              0.37471121156868137,
              0.2625659468793761,
              -0.17201596863129376,
              -0.4852883845985853,
              0.09647125307639093,
              -0.06952690807794999,
              -0.097897596804545,
              0.17136687749768234,
              -0.15647502446787512,
              0.11796859901671572,
              -0.18872705328223918,
              0.2850892716189604,
              -0.43532049040544823
            ],
            [
              1.0107133220662112,
              0.9569768159457377,
              0.6377248624965759,
              0.7010898327435919,
              0.7758239619268821,
              -4.359247807601446,
              -0.047306327141894526,
              0.443704298621542,
              -0.3601464569443784,
              0.5135806364540505,
              -0.48673632462506494,
              -0.12527816188158716,
              0.2688146661939698,
              0.09179028301306158,
              -0.19049199959673138,
              -0.0508183399988797,
              0.05332704450313866,
              -0.08748927664938944,
              -0.0056960274969361365,
              0.5034542779996329,
              0.06690319182981944,
              -0.7737259311106618,
              0.36282046232505105,
              0.050100383127494215
            ],
            [
              -0.5559382356137988,
              0.12627515587455518,
              -0.08673642741038524,
              0.5515237017919387,
              0.5609012187913841,
              -0.6116005335293102,
              -0.04903446755434031,
              0.1928470627212975,
              -0.5130279456447895,
              -0.625120395608898,
              0.16572475399750777,
              0.046186094516768604,
              -0.08822911620207058,
              0.0005153512319501843,
              -0.08267253591906304,
              -0.3225769582660904,
              -0.10570245113451177,
              -0.25375965982682924,
              -0.38558361932197655,
              -0.1443143967366634,
              0.05437286315988482,
              0.6253198381404935,
              0.7163911947840483,
              -2.347128533145155
            ],
            [
              0.7712151464397845,
              0.8171404044503195,
              0.6964481673823766,
              0.8089212749288704,
              0.8028848618675651,
              -3.8576645878684532,
              0.027466579700120574,
              0.11337602226693526,
              -0.06284429568804488,
              -0.11285880840854831,
              0.34103938685918844,
              -0.31444905322659805,
              0.055935143467761815,
              0.005769331031235356,
              -0.042443393796105566,
              0.0748844912327129,
              -0.07986646192410572,
              -0.0862364081542965,
              -0.031735908203282086,
              0.2473610557701842,
              0.005186990067915521,
              -0.06791273362981697,
              0.10282587709093849,
              0.11944170105604053
            ],
            [
              -0.1841066501191765,
              -0.08980517172756015,
              -0.06607936679154854,
              -0.20149040002776206,
              0.045039659400650786,
              -0.06688348879167022,
              0.10882880910706087,
              -0.27231456362103795,
              0.30199122585133203,
              -0.40115098729441806,
              0.05483960859279521,
              0.013072748219536058,
              -0.022746936479712883,
              0.6977793707336515,
              -0.36985200491500636,
              0.16373653978749808,
              -0.026887293236767376,
              0.033226830928833585,
              -0.20457853923403488,
              0.125593089967043,
              -0.7229775605982802,
              -0.21430448602410407,
              0.03400704290352377,
              -0.07357940105799365
            ],
            [
              0.39430131836766036,
              -0.16287076999743016,
              -0.04942098225493074,
              -0.07415021437796238,
              -0.13048869175599714,
              -0.13081765123199787,
              0.24739917832871142,
              -0.9132065819916838,
              -0.5026913756208151,
              -0.6023039029839414,
              0.5240596095269491,
              0.30104268163583947,
              0.8472887185065286,
              0.08010452120363502,
              -0.35367986119444167,
              0.3416880183444772,
              -0.2605768963572295,
              0.27018259692618585,
              0.38075587646576237,
              -0.17501160847910957,
              -0.06057594859187396,
              0.32043590381137516,
              0.1517042980092127,
              0.5084258067801687
            ],
            [
              -0.5685798044963662,
              0.18429854940214727,
              -0.12480886040011897,
              0.2748734580060706,
              0.21440540656873783,
              0.2778301596547992,
              -0.09532032107370335,
              0.0025568849266999275,
              0.85743980746572,
              -0.14011850955683114,
              -0.06282476326554406,
              -0.31496925933270936,
              -0.21834879602910404,
              -0.18920443093183437,
              -0.03408654383015156,
              0.06984952135410838,
              -0.1935196373467127,
              0.10603914072980532,
              -0.2864910908585456,
              0.3326732628390829,
              -0.18758141137159562,
              0.3450942930901738,
              -0.30313335211357284,
              -0.12029329074936256
            ],
            [
              -0.16431254713584856,
              -0.8805665970648707,
              -0.34894919401130875,
              -0.7871063444665469,
              -0.19422835866565785,
              2.1207784499611217,
              0.05754653654756488,
              0.006672927427425241,
              0.0820388866008763,
              0.25720159057407666,
              -0.4015374614855669,
              -0.5379474774400516,
              0.9606992370030623,
              0.19456521465889934,
              0.005975093453685174,
              0.496350392034148,
              0.2757981238654426,
              0.16230597302573158,
              0.18400228075122657,
              0.08235986988160468,
              -0.42236397576895834,
              -0.36519825676166806,
              -0.24682968903779057,
              0.9776839136168307
            ],
            [
              0.08379718771529056,
              0.04910721821812405,
              -0.3211796610310195,
              0.16517283795228488,
              0.11080917012595172,
              -0.2777884015646965,
              0.16693077566930534,
              0.1270637976622362,
              -0.5267086188893807,
              -0.366988777622552,
              0.7082561827932615,
              -0.019948667856822207,
              -0.06673719601020459,
              0.35724428002992253,
              -0.26899782150832424,
              -0.3829229707744878,
              0.19427258072425574,
              -0.11904668450704144,
              0.31942699427536714,
              0.021003672706054098,
              -0.4291381560487549,
              0.21152631454085194,
              -0.5819986586862637,
              0.12304231485851409
            ],
            [
              -0.6004223949937058,
              -0.05799756279286424,
              0.7336666377553592,
              0.4764754411709977,
              -0.1752878347997592,
              0.43980403182950645,
              -0.12046296833173568,
              -0.0958856784316971,
              -0.9432090537255938,
              -0.3070306010155535,
              0.26876316821788077,
              -1.0159435291423495,
              1.497860456182539,
              -0.30982581998676,
              0.23298930718391794,
              -0.08892209173855795,
              -0.14494435432878616,
              -0.01837500106343208,
              0.09677505553548944,
              -0.05790110932943538,
              0.03924234579700668,
              1.6231455034575826,
              -0.07265307720563233,
              0.0051873766642683014
            ],
            [
              0.48143418028625706,
              0.08428592639426731,
              -0.248197895560792,
              -0.031136201914965488,
              -0.3306799692450864,
              -0.08267229228828941,
              -0.1800241739829641,
              0.24293882310437925,
              -0.2699595924643985,
              -0.2916706592389193,
              -0.14919886495923157,
              -0.21938975408797487,
              1.098837858118969,
              -0.15145674494323394,
              0.050020389836776646,
              0.07668091470568135,
              0.37876937414586287,
              -0.27510019171993993,
              -0.3717649456035119,
              -0.13983566745392026,
              -0.06346806594948474,
              -0.4094952879240584,
              -0.2590279132427056,
              -0.2293529668626794
            ],
            [
              -0.11111681213176099,
              -0.009543318972491334,
              -0.04956027192826264,
              -0.13014015581089833,
              -0.12334215301916986,
              0.39992051897526554,
              -0.208208560497062,
              0.35436962465784794,
              0.03870687344355675,
              0.27929597851400956,
              -0.2053546235027627,
              -0.03366179510166261,
              -0.2509677378790055,
              0.14504710175895655,
              0.4103814058902636,
              -0.5853358247997374,
              0.4299479533189251,
              -0.4280825992154535,
              -0.16398702727848066,
              -0.18185945840933115,
              -0.2667719450949974,
              -0.18236521000006048,
              -0.36660540697495597,
              0.025593805963664885
            ],
            [
              0.37090506871069584,
              -0.1394300068733624,
              -0.07055248503403493,
              0.020569852638610338,
              -0.18598231318999506,
              0.07647571532380665,
              -0.13101014787603205,
              -0.06234033963501568,
              -0.4290681700528333,
              0.006333546116623633,
              0.12154200261123585,
              0.10752528320794755,
              0.3756565060431285,
              0.021514407369894028,
              0.3279787269235326,
              -0.3754248274781885,
              0.2837433553445255,
              -0.22538985857241933,
              0.07670350732672865,
              -0.44374487367714344,
              0.040067932644622446,
              -0.13328588642170133,
              -0.16769890198231635,
              -0.0036624373391780855
            ],
            [
              -0.3180165341941787,
              -0.17634855435667837,
              0.33726083535265433,
              -0.19631824057906852,
              0.029015440532532823,
              0.5552310403196697,
              -0.5506981122058072,
              0.1464674821508448,
              0.4152582909174344,
              0.516373951575092,
              -0.121278205006958,
              0.1561423747234037,
              -0.5877523205517016,
              -0.12962572885185786,
              -0.5269400819781472,
              0.22116099123835392,
              0.5990048640699608,
              -0.03460629306649013,
              -0.05629825368290603,
              -0.7933645885969658,
              -0.15638865654512674,
              -0.4743151334224038,
              -0.1140967783451082,
              -0.43142501473886957
            ],
            [
              1.5206022616791617,
              -1.228572256754551,
              0.25159647023124776,
              0.05396318261185211,
              0.19571843884061071,
              -0.5921172667452347,
              -0.39654633905062403,
              -0.9507567828824208,
              -0.7579703220124603,
              0.2691466037003322,
              0.13016023723542855,
              0.8024129005324436,
              0.47901092621057934,
              -0.17137701067059988,
              -0.1788182515122716,
              -0.31613746465688014,
              -0.07762429883984967,
              -0.16473708064622333,
              0.002445865724118127,
              0.15252310128334387,
              0.06485465969872531,
              -0.013264408129886532,
              0.4567017196186328,
              -0.8914543761210748
            ],
            [
              -0.25701046895410024,
              0.44547066560343035,
              -0.6912915712107132,
              0.364120680805294,
              0.4652273073062402,
              -0.11709794528996399,
              -0.4234489984035736,
              0.09142617215260287,
              0.12871292591161793,
              -0.24987697330866648,
              0.23444182860988597,
              0.11657361051104267,
              -0.22559548634075896,
              -0.5216168189581636,
              -0.22565208189444008,
              -0.18332926848947442,
              -0.13487503697209402,
              0.0016687286184025535,
              0.12209709012451173,
              -0.5890744301938908,
              0.3623052523438406,
              -0.14841507347309615,
              0.6118920937736594,
              -1.526354376829367
            ],
            [
              0.0372404744438539,
              0.3665717165302353,
              1.0602060740578079,
              0.6680722085967103,
              0.7575779742601197,
              -3.543381874007972,
              0.8125261015689911,
              -0.5137708105945858,
              -0.9439482395680162,
              -0.22508233814016884,
              0.2140753313409256,
              0.2964943564451367,
              0.14859211434750322,
              1.114279263721708,
              0.031246295718456215,
              -0.2570648783059971,
              0.15202765620308978,
              -0.1694188716178946,
              0.026527583925581726,
              0.16653850907365228,
              -0.1101567724370385,
              0.13437824733617487,
              0.03991736933324656,
              0.0381765555526382
            ],
            [
              -0.06761709370236937,
              0.7091847720272345,
              -0.21937534311436527,
              0.06703744498435106,
              0.26078154075795834,
              -0.5779241268568428,
              -1.2756543384810293,
              0.058536108988369966,
              0.6341098164800215,
              -0.20381907397841026,
              0.5285369467099595,
              0.19296340039577287,
              -0.9989449862039338,
              -0.5054886922791026,
              -0.5564252303184568,
              -0.3897815720955325,
              -0.503710110045566,
              -0.4987952678153912,
              0.04490741513581508,
              -0.24014666756856576,
              -0.6849518899606347,
              -0.20663444872049674,
              0.9328128307080833,
              -2.7419984094022114
            ],
            [
              -0.3159517612064393,
              -0.8147337206935111,
              0.19987251749946766,
              0.8333822995085333,
              0.42785626904279983,
              -0.5303257272383473,
              0.2270997104479694,
              -0.7705023342871156,
              -2.0759628184189025,
              -1.5643774987362866,
              0.544555746601424,
              1.43240560452788,
              1.2771286563928144,
              0.4258097255579097,
              0.20093546598862103,
              -0.13408353437701478,
              -0.16246868691676838,
              -0.14729946174609726,
              -0.09143660491280162,
              -0.21067366147736677,
              -0.23493016301019104,
              0.8872786673691324,
              0.6714426648588692,
              -0.7385920741721143
            ],
            [
              -0.3094197703765298,
              0.6243169296965533,
              0.8695278873785411,
              0.18898463493063963,
              -0.1422783827140045,
              -1.3064832802151436,
              0.007372264260304644,
              0.518585470991646,
              0.615130683878076,
              0.18894367255588188,
              -0.3861200763133231,
              -0.16761320577959637,
              -0.21944311663333577,
              -0.0963528727019456,
              -0.33456047187250454,
              0.3866768550677447,
              -0.2959812719933488,
              0.33723546958796646,
              0.10335561618586901,
              0.16700715630852095,
              -0.04753136527423947,
              -0.5843548854203312,
              -0.2413304295974615,
              0.40343601660446504
            ],
            [
              -1.2184613400202473,
              0.3629607035526806,
              -0.2966234750518116,
              0.4608686056871141,
              0.21775461140034916,
              0.46981174257753144,
              0.31567060729133894,
              -0.18920861549146945,
              0.3174797814202426,
              -0.11385538625633362,
              0.15706140754997505,
              -0.7400972507372233,
              0.6398594783600855,
              -0.46027267877236283,
              -0.807179970744797,
              0.5287918970906337,
              0.12402285398350173,
              0.1806054125833941,
              -0.04585725156011569,
              0.028453875478947403,
              0.5363668031815744,
              0.06845627753843996,
              -0.028213079915950328,
              0.12701070777884568
            ],
            [
              -0.06357244703684366,
              0.04121366550245123,
              -0.5889281989060408,
              0.5347993640598372,
              0.5949353263867763,
              -0.4646921291907987,
              0.15411378882217994,
              -0.12398858957059525,
              0.41037356745514864,
              -0.6455865253144897,
              0.9214238530991862,
              -0.18631248141895698,
              -0.45085952906305354,
              0.1551856358434346,
              0.07121671131010827,
              -0.23456061107670687,
              -0.5420159799920121,
              0.3051095397415195,
              0.14329562586690814,
              -0.14666819903730452,
              -0.2866520150542553,
              0.3496684435449562,
              -0.6425300430407805,
              -0.0882413618166868
            ],
            [
              -0.4644222441636795,
              0.1478366295015211,
              -0.6296417006398247,
              -0.2575746412025403,
              -0.016612862249612576,
              1.1362947197467415,
              -0.3338863988087564,
              -1.0647508129786425,
              0.8162241754730214,
              -1.0691059378520156,
              0.5192453713274102,
              0.12705118288340275,
              1.114142845478069,
              -0.48470333335425403,
              -0.41645542884909115,
              -0.6351916359414639,
              -0.004557610314330182,
              0.26566994285661316,
              0.01757976960910244,
              0.3187980413337766,
              -0.13032501118335804,
              -0.2674140833157702,
              0.015798297761185135,
              -0.3439872541964504
            ],
            [
              -0.10946188041269636,
              0.3356844860694329,
              -0.5496064564509684,
              0.1366190632682058,
              0.15350251771805618,
              0.16175643885356758,
              0.32540704009145593,
              0.007530126068507753,
              -0.3012691340241981,
              -0.45541688258013885,
              0.45584444171163097,
              0.14629233609618086,
              -0.13603689117786152,
              -0.13107159885018513,
              0.07742639999083935,
              -0.4275668609376891,
              0.3854168914406499,
              -0.16612923540439137,
              0.0810278989497886,
              0.20371616509144888,
              0.22943290159440652,
              0.6637750490352134,
              -0.3023280374503385,
              0.7666067892463015
            ],
            [
              -1.456091162462287,
              0.995641224651901,
              -0.09525922045279944,
              0.16105320221033909,
              -0.11494106934523463,
              0.6925510025443011,
              -0.2660788233832567,
              0.5245576110350523,
              -0.15103048513255526,
              -0.11053879400130473,
              0.6678431853647542,
              -0.44301672667452313,
              -0.017415547464025006,
              -0.3947837402566457,
              0.4938546259032651,
              0.159082139106545,
              0.2970543587850555,
              -0.41562398825502683,
              -0.27830286701140206,
              0.13972230723802145,
              -0.0041416170201103745,
              -0.0870587298129684,
              -0.14011030003701824,
              0.2170074831892846
            ],
            [
              0.14049325960033854,
              0.2661042789482296,
              -0.08121094313063563,
              -0.0017294353201128163,
              -0.15639038185992013,
              -0.41910005910114223,
              0.6999769758090687,
              1.0858135926109551,
              0.04366474820730413,
              -0.19002885547167186,
              -0.11268321424366508,
              -0.16172087412604275,
              -0.313012708265448,
              -0.4450810584091111,
              0.26486030657146403,
              -0.11681443097650314,
              0.1887325576358801,
              0.028724016736795987,
              0.05812752405915228,
              0.10548209648456086,
              1.1298753323431896,
              -0.4907119646701857,
              -0.3745935848491073,
              0.7590275150665002
            ],
            [
              -0.20609712262001675,
              0.09917792823057728,
              0.27991098661726266,
              -0.36296398817758035,
              -0.4999902227651076,
              0.3125641122403939,
              -0.28490004608727343,
              -0.022101391916084418,
              -0.560887187923503,
              -0.022706498271552574,
              -0.15108525230873582,
              0.04259733316540286,
              1.2825967802892815,
              -0.022256478107312783,
              0.14185225697128906,
              -0.10391018896754697,
              0.06674563432394358,
              -0.09121491033577271,
              0.30033678365017585,
              -0.12757303162938075,
              -0.15748072345766617,
              -0.9398769611489795,
              0.10062675001140133,
              0.12502514471377352
            ],
            [
              -0.27940470751346713,
              -0.36321376310871945,
              -0.438951408178898,
              0.5872150984923765,
              0.7966652552980552,
              0.19166780094434974,
              -0.4938823275240361,
              0.5398257431466104,
              -0.8504267681591824,
              0.39441982612050813,
              -0.2784887899576324,
              0.2736233647353613,
              0.14734129285991773,
              -0.3823301298140879,
              -0.11605664648122274,
              -0.2515170801541689,
              -0.1867173218078102,
              -0.04395376336608499,
              0.2223191378589389,
              -0.12131743439498745,
              0.09538132329613344,
              0.16535153972639055,
              0.04457971374741658,
              -0.430222142360584
            ],
            [
              0.20332870299752723,
              0.7396615289581725,
              -0.5527315962853587,
              -0.162578200155844,
              -0.11279388589747927,
              -0.16369970634965542,
              -1.0699620161691428,
              -0.014643730000981379,
              -0.5307551718004736,
              0.5869397802371565,
              0.7219118549874896,
              0.5581722215856706,
              -0.5621689918170928,
              -0.5982547158562552,
              -0.09107228552388448,
              -0.4727011596701319,
              -0.1600223606102663,
              -0.2734075367471441,
              -0.29469331365889057,
              -0.20247362900571994,
              -0.19955368540670565,
              -1.0007935122806997,
              0.6362129374694242,
              -2.3862411426401944
            ],
            [
              -0.32056837537022886,
              -0.30276589898524936,
              -1.4805967231893837,
              1.009724159704848,
              0.9051812191807477,
              0.33061481997660314,
              -0.44416816543288673,
              -0.8812551615892024,
              -1.0434788635298582,
              -0.2096155338093736,
              0.30646102075863885,
              1.0431515350290042,
              0.7904645430403816,
              0.029688831642987138,
              -0.40124642255807214,
              -0.133179438662593,
              0.1515315624922044,
              -0.06803676160723189,
              -0.00980950893786645,
              -0.32111951590657795,
              -0.18455366917588528,
              -0.11284955170826846,
              0.27445806389918853,
              -0.534682328637643
            ],
            [
              1.0438594040379046,
              0.3300145757551343,
              0.6001220812033625,
              0.39971464428551157,
              0.2286706786841076,
              -3.0472652398473907,
              0.23752277058707055,
              0.3363861029234317,
              0.33100652443959744,
              0.01419089375137553,
              -0.3277660527505507,
              -0.4319124440087629,
              0.024264586315467837,
              0.30292991596952423,
              0.044523213154273725,
              0.02545912638316354,
              0.0007231342136792363,
              -0.020001386613754033,
              0.17016364050795801,
              -0.04117275023969896,
              0.18994636786251426,
              -0.6520217413121601,
              0.32990663922043534,
              0.09212867832895043
            ],
            [
              -0.23791497886127702,
              0.056557252865928345,
              -0.012843339085767985,
              0.4706874304799395,
              0.47183074539176134,
              -0.8114699619692515,
              -0.2037731975037138,
              0.4410276985903755,
              -1.3720412657334324,
              -1.0239556801668825,
              0.5206203506357279,
              0.40219698094265266,
              0.1867511537314467,
              0.14540198671683424,
              -0.3939132386873904,
              -0.24632801584347114,
              -0.19522697053739443,
              -0.24941909020262004,
              -0.4685942638924632,
              -0.2251403817243019,
              -0.17287447150017277,
              0.5551172933102604,
              0.6745651459202036,
              -2.6989710400660334
            ],
            [
              1.5664658849502244,
              -0.34279746144480966,
              0.9197005001303852,
              -0.6566252998931609,
              0.1168672505037571,
              -1.4570530635959766,
              -0.31494905034037557,
              -0.9827771219735693,
              0.05690935268407503,
              0.372396255679263,
              0.17311345903435574,
              0.32376408888140207,
              -0.06794592279382929,
              -0.20114467825968535,
              -0.2933807201781996,
              0.19387727090040005,
              -0.3000560627485731,
              -0.2862893920381776,
              -0.3054990772225176,
              0.06501383980235297,
              -0.04769638215806677,
              0.11792272629723483,
              0.4214999037380026,
              -1.630863868702242
            ],
            [
              -0.17562768220739844,
              -0.09005168180437201,
              -0.07704197738744586,
              0.015175367772133939,
              0.0826683480484438,
              0.06729864252732842,
              0.0724721074033857,
              -0.13635174248827314,
              0.0172975139895545,
              -0.07617275117956791,
              -0.16580957053987616,
              0.035366777358368406,
              0.08666174720173196,
              0.26316668700177626,
              -0.6714881132625451,
              0.04628061372565652,
              0.16352815316255942,
              -0.03221622327071325,
              -0.41583937141686395,
              0.565630502442826,
              -0.24645593950497388,
              0.009264946798216852,
              0.09641642728115707,
              -0.42907131169537777
            ],
            [
              0.41645246717839945,
              0.5836781250046006,
              0.18538041445554804,
              0.5251425112487356,
              0.40317192693654,
              -2.6156892883048832,
              0.3071562646381348,
              -0.4351375676469769,
              0.6163506193888152,
              -0.24374359969452825,
              0.02846883267010301,
              0.06106438171738579,
              0.13811595137646435,
              0.09132013758634938,
              0.11650649952935206,
              0.14389550772247708,
              -0.1406326186438983,
              0.04110134750112218,
              -0.04647339069104048,
              0.4465386393488836,
              0.04805452334927215,
              -0.6089219573104601,
              0.1263929064310214,
              0.6522408293689508
            ],
            [
              -0.6411562135659717,
              0.04502780859910409,
              0.08171558982767124,
              -0.23854625437372373,
              0.2219601631008356,
              0.09314482344360794,
              -0.2662118743181587,
              -0.7203206201627511,
              0.1770014806025604,
              -0.2894888831414234,
              0.8869687013062563,
              0.31301789308797756,
              0.2339446585464256,
              -0.25714923284872326,
              -0.04151283866632055,
              -0.1851535183943788,
              -0.2581184439915219,
              0.26284798311117885,
              -0.2950604848472871,
              0.02522239660653883,
              -0.25922929341169054,
              -0.8809474123396913,
              0.068085826136528,
              -0.7522684476290586
            ],
            [
              -0.3133324455598429,
              -0.32165141710120465,
              -0.5143937927622378,
              -0.12895452099551874,
              0.1836358036747842,
              0.41806256536401437,
              0.9590922407258159,
              -0.6898341031904837,
              0.22881143186057964,
              -0.0029786266252333085,
              0.43708842870592046,
              -0.373979078960404,
              -0.28811275848892853,
              0.5006469455343626,
              -0.11094760388623029,
              0.07332314516464179,
              -0.224009647824811,
              0.07306566737325905,
              0.03155256711249289,
              0.27620383412489274,
              0.17008042770351947,
              0.24245744077121448,
              -0.2890561795300309,
              0.6529986333250787
            ],
            [
              -0.24515733043872912,
              0.5970493064935952,
              -0.09913431554314056,
              0.2069837786928689,
              -0.07162328217108664,
              -0.6968761956794728,
              -0.10868043195741008,
              0.852538874115413,
              0.026213937452247017,
              0.09715873798614842,
              -0.3521034356384372,
              -0.39729131161155273,
              -0.24904706133958712,
              0.5761875965735465,
              0.08547344433869185,
              -0.027498749735265084,
              0.03170842309136628,
              0.07074778914105204,
              0.12412238173824121,
              0.4989480915643977,
              -0.9604973437918319,
              -0.02472468862137547,
              -0.17488794674756444,
              0.8357363012513958
            ],
            [
              -0.744347952903834,
              -0.013270841875567988,
              0.1367275146022479,
              0.16798289373687328,
              -0.23746796478034568,
              0.6660021433772098,
              0.2800833177491371,
              -0.037684910206439506,
              0.10083485332659164,
              -0.1879311212595727,
              -0.6148994542633666,
              -0.5856677646126497,
              0.9977121149461887,
              0.38332156912821536,
              0.38494483930433504,
              -0.3423245346111905,
              0.16438424583663094,
              0.23602075037630815,
              0.256325165239673,
              -0.0409027078737006,
              -0.3174477219844869,
              0.5499925314971604,
              -0.4039394502272845,
              0.6268830309017872
            ],
            [
              0.6607212760365505,
              0.23096553270941178,
              -0.508356348425803,
              0.0032780589319778845,
              -0.42835728837732306,
              0.26264332754327774,
              -0.2486256089485704,
              -0.12306150548336474,
              -0.1542689175535311,
              -0.046934028187211936,
              0.1964262645497287,
              -0.6065067952295419,
              0.8796586715155262,
              -0.2765218477706282,
              0.2489183604948458,
              -0.2584810422712191,
              -0.07499855039574319,
              0.436778985211139,
              -0.021966076281583473,
              0.09483588172823093,
              -0.08705765656336259,
              0.2639587933158608,
              0.03152930275854279,
              0.7088882304435414
            ],
            [
              -0.29845045672620235,
              -0.17353164117434158,
              0.7348372231082818,
              0.4307437360365202,
              -0.05811814613812547,
              0.27279037630336456,
              -0.02843708732042393,
              0.39346031642408796,
              -0.4164523975225104,
              0.13655974861692013,
              -0.6593162313168462,
              -0.29219331358312994,
              0.14216928341012663,
              -0.2005613414337538,
              0.302559544995954,
              -0.4451325012608268,
              -0.5132045117877121,
              0.16015412516666275,
              -0.0026459832084663212,
              -0.18464236430997522,
              0.17673019314272298,
              1.7007959619110495,
              -0.38978913765389256,
              -0.36277219350805506
            ],
            [
              0.47622624504431055,
              0.2462761618084827,
              -0.31306018429160565,
              0.006594245277364275,
              0.017611987723489746,
              -0.02192555345257478,
              -0.5637231377312788,
              0.03125736369396036,
              -0.27548865723394056,
              -0.25467647246883857,
              -0.5450955922508728,
              0.007659696901383604,
              1.045928137501746,
              0.1404914458892236,
              0.3672176756527407,
              0.09303217599318105,
              0.04217577197132515,
              -0.3689017388409299,
              0.19203630395205892,
              -0.22509344357298142,
              -0.5808623552900466,
              0.390175739763935,
              -0.021229489559547687,
              0.20194459348031335
            ],
            [
              -0.12268091493433707,
              -0.4269378563577457,
              0.6533954153158986,
              0.09084952169095971,
              0.18134342483268062,
              0.23561013064534603,
              -0.4572328788048094,
              0.4021047789881304,
              0.02960555302134212,
              0.5215114318426207,
              -0.20704619268373012,
              0.1307990753855967,
              -0.7489344262736787,
              -0.4535620270374961,
              -0.09415513795826896,
              -0.07899321288496011,
              0.1635462694729236,
              -0.17579929471553313,
              0.07743153519705663,
              -0.47411868911468186,
              0.2166400125804989,
              0.3649748163148013,
              0.052516636788176724,
              -0.5665366658442036
            ],
            [
              1.7791640464267753,
              -0.928925961645939,
              -0.10375943428010884,
              -0.18670205770721313,
              -0.14800324667052345,
              -0.4473188968862123,
              -0.277016497683708,
              0.08413000386540476,
              -0.26289307667591544,
              0.07385125962443082,
              -0.33402190618122857,
              0.4077995321301286,
              -0.10786341346533199,
              0.5620272049345743,
              0.28225801147316704,
              -0.28514370440240333,
              0.23690146136470813,
              -0.08906619055646853,
              -0.07653764158464217,
              -0.12856310639354174,
              -0.5606876194812966,
              -0.10077260164811602,
              0.06355435631534188,
              0.0663932634076183
            ],
            [
              -1.061444090885194,
              0.32706979217268983,
              0.3398566436752517,
              -0.18393006242997975,
              -0.25658538036315653,
              1.0019640296831194,
              -0.210252943590334,
              0.42316614383219353,
              0.08804627829357693,
              0.254570820075791,
              -0.7360506117614465,
              0.1977328405373617,
              -0.15680413067353313,
              0.021688342077048364,
              0.36848505476948934,
              0.09305062109927484,
              0.3321424689363696,
              0.027900457936334007,
              0.08807076896107974,
              -0.34604811459051227,
              0.05529409594343412,
              -0.15754291093414846,
              0.41733392611634457,
              0.014935030544622563
            ],
            [
              0.7528832198175273,
              -0.34398583241889713,
              -0.7706953637853119,
              0.4849670176467893,
              0.46491240882330376,
              -0.34106234974082394,
              -0.46306102234813,
              -1.9291288955561463,
              0.3976945266769433,
              -1.027013433891562,
              0.4561117171376514,
              0.9566938582784468,
              0.8440393376089206,
              -0.36241660450998986,
              0.1317911339286284,
              -0.02055290489041798,
              -0.26949145497040083,
              -0.18521352583106537,
              -0.13882273061133799,
              -0.5529341670945682,
              0.14473599509909768,
              0.2900524344830714,
              0.8487132156344509,
              -1.272864839332793
            ],
            [
              -0.218386365176277,
              0.4694902528412683,
              -0.5963836719239352,
              0.29610922384429783,
              0.3149751189134067,
              -0.3849851135969327,
              -0.44406337692455666,
              0.617490844816284,
              0.6304200545917836,
              -0.3985547298582562,
              -0.3485804009070184,
              0.740928643772803,
              -1.0676362421247678,
              -0.2358159517005851,
              -0.6392783071683437,
              -0.22491140388820186,
              -0.057862231813823335,
              -0.15050479688019497,
              -0.1767981190427367,
              -0.07779109729899307,
              -0.0480634222303521,
              -0.5109043000094935,
              0.4761545595640202,
              -1.7085946015037643
            ],
            [
              -0.06128640584660051,
              -0.6021856317252283,
              0.31622204308748203,
              0.13999771247004428,
              0.20977939212685173,
              -0.3650232144999467,
              1.0282784922724582,
              -0.6990562150251065,
              -0.8885514773062173,
              -0.4188598075798004,
              0.13106221743173985,
              0.2829878108350454,
              0.3248410851062024,
              0.6508662446180176,
              -0.2329146438581343,
              0.23724361819709944,
              -0.2792755689118167,
              0.13193348460321908,
              -0.0948550916673952,
              -0.2338863070774555,
              0.4241066062323088,
              0.7667831030123291,
              0.015190862243359604,
              0.07905399346386785
            ],
            [
              -0.5230390789760386,
              1.149682507294475,
              0.4664482378737404,
              -0.017375267155565807,
              0.20978588017621586,
              -0.5157353043061881,
              -0.7924121120640957,
              0.6564758252294034,
              1.1189269419576586,
              0.2569639222952335,
              -0.2948241175296371,
              0.021537898448137513,
              -1.5349491199942116,
              0.016054748705271106,
              -0.6000618955446068,
              0.2674811426525675,
              -0.20727081134491246,
              0.24561896405157627,
              0.35115475370932553,
              -0.17438144299313538,
              -0.8835097519305518,
              0.5111242146332076,
              -0.14633570223693676,
              -0.015283857511146918
            ],
            [
              -0.29494357070108446,
              -0.1215497566719661,
              -0.09091621140668146,
              0.5784747256095781,
              0.15921155511407184,
              -0.8611195146875809,
              0.8395910179560354,
              -1.0378565568834752,
              -1.7743841470797594,
              -0.8730597535645622,
              0.49575852180203933,
              0.5466417892876485,
              1.5358918558491934,
              0.6844617108899308,
              0.14545091147683423,
              0.13216073088360414,
              -0.07438849802984523,
              0.07578495731387977,
              -0.3512495225470884,
              0.15817550544685097,
              -0.028396038876808426,
              0.5515356133600732,
              0.22215257963330776,
              0.07745460513628089
            ],
            [
              0.0784757235101135,
              0.1218883630847952,
              0.18106712508976897,
              -0.24758472288925995,
              -0.18980332798660612,
              -0.26483252233720217,
              -0.009305457555381287,
              -0.39429384483478147,
              0.92532268529437,
              -0.667215058199854,
              -0.19287262417026785,
              -0.11240679720679608,
              0.6841338148681584,
              -0.09238672140873805,
              0.08267288496564862,
              0.1340980982575027,
              -0.30077058590498906,
              0.3808775248442113,
              -0.3255487507811794,
              -0.16274472308693566,
              -0.1765105306078341,
              -0.3915185253100173,
              -0.03134718099661455,
              -0.303471982408666
            ],
            [
              -1.0633621447146668,
              -0.5228028821221237,
              -0.8175821226108643,
              -0.48591285874208145,
              0.1553383913062066,
              1.779623484602534,
              0.35125532047717983,
              -0.8087254681186706,
              -0.4440012728782102,
              0.3329025197830398,
              0.4610325574220594,
              0.22689458381249858,
              0.6254975401134306,
              0.14568496665577627,
              0.06214924949695992,
              -0.00427003758657095,
              -0.19573329802907813,
              0.12835532258913857,
              -0.04620426414567816,
              0.37153225944676477,
              -0.08423629742291629,
              -1.1101601808575334,
              -0.07895916149836851,
              0.2772210792861919
            ],
            [
              -0.15775122116045528,
              0.16712823432617346,
              -0.09860030438542326,
              0.027315466172520668,
              -0.16269650353895804,
              -0.0013191341746196462,
              0.13827297194852167,
              -0.14568723519420929,
              0.14927183746598321,
              -0.07640303232501613,
              0.41077308215878466,
              -0.20667632685668047,
              0.07083201848672234,
              -0.14979946160341856,
              -0.25847463707398555,
              -0.5003926989905202,
              -0.4552992016850766,
              -0.6087180996160971,
              -0.006010179065600882,
              0.1162666681347325,
              0.0192393549683474,
              -0.16575828489939834,
              -0.8410934474164581,
              0.05829489548332302
            ],
            [
              -0.5790079812133394,
              0.11258067860825953,
              -0.16988245926935067,
              0.39657579588496317,
              -0.01653761496060975,
              1.1087513433032183,
              0.11536441788070777,
              1.0784455540944773,
              -1.0564996777873839,
              -0.527299374304078,
              0.16517752181788375,
              0.028096013808317652,
              -0.7013552186883046,
              0.3123327931528178,
              0.9489547742867527,
              0.02276877136619092,
              -0.07775714744591661,
              -0.07235960014699297,
              0.16775151420158654,
              0.1456210522030886,
              -0.39734400525167424,
              2.106001957694794,
              -0.19716598549734882,
              0.9685913522722355
            ],
            [
              0.1531637496007949,
              0.15568023860695276,
              -1.164866337443775,
              0.44084591452944877,
              0.20462591729108554,
              0.40616814096506354,
              -0.00016516504993671695,
              -0.26627027882405213,
              -0.12058985204593323,
              -0.07888041190598591,
              -0.13106692010116655,
              0.2161100194042634,
              0.3324082911566749,
              -0.19613359196315272,
              0.19947776796463407,
              -0.054982126449977416,
              0.12649493834436412,
              -0.03806444507673894,
              0.08299927215129393,
              -0.012588741819894368,
              0.09944251053035431,
              0.4193988123881963,
              -0.1073272820474649,
              0.43899510359754185
            ],
            [
              0.36298628855076126,
              0.00005464614502670928,
              -0.1270513777687537,
              -0.06275215440581887,
              -0.39665792035122277,
              0.435954745241465,
              -0.19526318237906137,
              0.38536003638047345,
              -0.12029651931777788,
              0.04792110445063084,
              0.11368883738086585,
              -0.5966006199771154,
              0.29774041533088247,
              -0.18752987504890903,
              0.28035153843664407,
              -0.6089217466554642,
              0.20491879865224688,
              -0.1311203249262409,
              0.18498480876627169,
              -0.08626376209616819,
              0.016639822737293888,
              0.16462094579647887,
              -0.17017406614127767,
              -0.02981236742117268
            ],
            [
              0.14748589493728295,
              -0.5024141617779266,
              -1.0010842320567075,
              0.6727296980021961,
              0.48779429333351537,
              0.33654584216162226,
              0.16432701833832117,
              0.05412686467251463,
              -0.6262145752610508,
              1.0878334185685263,
              -0.9049084141398868,
              -0.12527316743911604,
              0.33892418334391416,
              -0.08347606275370816,
              -0.09689790494006298,
              -0.03681237852836509,
              0.3035431607163911,
              -0.27973033540058523,
              0.06247659155283687,
              0.013186584535705159,
              0.3887702416848748,
              0.2867642343413873,
              -0.09323653281888875,
              -0.11232563491332277
            ],
            [
              -0.1387053739094024,
              -0.03165725113357172,
              0.1141999469069071,
              0.05337804417160885,
              -0.1482754970580669,
              0.09895995272422631,
              -0.26183573607443433,
              -0.1910266427145812,
              -0.28874970610966627,
              0.40072850870871934,
              -0.11369135847195057,
              0.15912919978907128,
              0.27383715952520443,
              0.08257044751277143,
              0.027729955914829192,
              -0.1882448982189216,
              0.1049395473568987,
              0.08093095331650789,
              0.06461054746981933,
              -0.5130753249284622,
              -0.11174396398308975,
              -0.4265724848127708,
              -0.053894642990163485,
              -0.08773953419593276
            ],
            [
              0.25185817326245596,
              -0.909792791254602,
              0.012697601349094445,
              0.20330915703209904,
              0.6481127078834023,
              0.15572912406600703,
              -0.5147071337366602,
              0.7404671557007307,
              0.12874259561819892,
              -0.13685391405054828,
              -0.27819439108193467,
              0.009280097529051155,
              -0.5387468546860169,
              -0.14079741527866615,
              0.2150566604034947,
              -0.026167396279394826,
              0.06689470680067455,
              -0.05018126766096874,
              -0.19257724593151943,
              -0.6038678264404346,
              -0.09064747186240715,
              0.22224544705483695,
              0.3824268001820295,
              -0.568422882198948
            ],
            [
              0.8336208135996427,
              -0.3334370719568567,
              0.10624968335716523,
              0.20505387900977623,
              -0.19280548427649866,
              -0.5729741021608075,
              -0.15906491763435085,
              -0.6043980394251766,
              0.6788337958896252,
              0.609419382462753,
              -0.26642200362491886,
              0.029015986472120323,
              -0.35785285932041316,
              -0.3624596179574,
              -0.392756779610042,
              -0.12181601838211593,
              0.1465317103427236,
              0.27458345220378955,
              -0.12487089767384903,
              -0.006898494052858559,
              0.4872244799638899,
              -0.3006203314479379,
              0.5999214528016031,
              -0.5361162211597179
            ]
          ],
          "bias": [
            -0.13944901392573683,
            -0.009342977219545443,
            -0.27212421798360553,
            -0.4765797090732573,
            -0.28693667652857596,
            -0.10371319596341097,
            -1.0002146967843801,
            0.026153945816932905,
            -0.10031958260838912,
            -0.1354578091577154,
            0.1812305708955177,
            0.48601535603127094,
            0.3188606877926466,
            -0.0951161030824657,
            0.03763691915405143,
            0.134518761111585,
            0.0676873533363254,
            0.01161228952676033,
            -0.5031010537557149,
            -0.7718328657467116,
            0.128748227413492,
            -1.5113809072406366,
            -0.7705982315159822,
            0.38145274995909906,
            -0.03218934915982048,
            0.38132298401495046,
            -0.3460237553437621,
            0.1675262224541394,
            0.10443665436517152,
            0.438144318339235,
            -0.0865013191448214,
            -0.1803398668429105,
            -1.038607819691385,
            -0.3802277937113585,
            -0.08485519380356552,
            -1.0983803768505274,
            -0.5939494123917909,
            -0.1333882560647875,
            0.06224352359609163,
            -0.3099061462938332,
            0.191248486050055,
            0.25975601195023973,
            0.4423026916965603,
            -0.05242916766198995,
            0.054873988744782214,
            0.01995047908492923,
            -0.2050649092429377,
            0.03166198421965495,
            -0.06400973363204747,
            -1.017695460927867,
            -0.749850793798437,
            -0.03874209094698304,
            0.17547722920944647,
            -0.2053110620279165,
            -0.12043299110117203,
            0.038309578576115604,
            0.08896757871557241,
            0.39378412079726915,
            0.05368458013702576,
            0.021074522130594745,
            0.060411763773754505,
            -0.031161136465347822,
            -0.4599227652980699,
            -0.5082619790556776
          ]
        },
        {
          "inputSize": 64,
          "outputSize": 64,
          "activation": "relu",
          "weights": [
            [
              -0.26872463722595363,
              0.28592083772165816,
              -0.4136727080606897,
              0.22771006990205664,
              -0.21970337228801043,
              0.5116903308179792,
              0.24166313285974328,
              0.4113413381883625,
              0.05093555450209028,
              -0.12880465821170595,
              -0.2921281580282237,
              -0.3414816688089507,
              0.07032709112929961,
              0.21881288828333892,
              0.08978888082138153,
              -0.03901662657461034,
              0.12305393460863648,
              0.18760336738286823,
              0.1636919673406436,
              0.25379011585351724,
              0.45364936247027327,
              0.282453207369894,
              -0.1349104768248887,
              0.02067206728257679,
              -0.05332723182192619,
              0.2682349198871546,
              -0.10788836416967268,
              -0.00035764982508400023,
              -0.03644068891215609,
              -0.06756542188892915,
              -0.0031995672551699368,
              -0.07810662966176427,
              0.09746452840868156,
              0.02722741726060267,
              0.6113569239090422,
              0.22467541196590696,
              0.26748538461908944,
              -0.10522754159402026,
              0.5304295186527668,
              0.1341592362769554,
              -0.4466177854198249,
              0.2504103403554868,
              -0.22548257305850872,
              0.07270558351705962,
              -0.12781511878635657,
              0.14280298970345234,
              0.08340139514261946,
              0.20143710012815422,
              0.0024607601840425015,
              0.09665519900327132,
              0.07297951185653113,
              -0.03493124254073306,
              0.12433850477649251,
              0.19040037000728402,
              0.08127241996966672,
              -0.4342458802883968,
              0.4283104908215805,
              -0.43283841189224825,
              -0.0016253759439730704,
              -0.052715182466287466,
              -0.20453050711372114,
              0.0925876126644256,
              -0.13643731598702308,
              0.2941559434019005
            ],
            [
              -0.053675134531187586,
              0.04506396558344509,
              -0.11751477850359227,
              0.05726703269862194,
              -0.21112584734930304,
              0.05861547699303882,
              -0.22514617601509998,
              -0.011709610149596119,
              -0.1033852096876119,
              0.007091996576573881,
              -0.02767117924221771,
              -0.08674861944671211,
              0.07182045931032711,
              -0.16610238622555995,
              0.06153243023224522,
              -0.08007968314192956,
              0.10578156055068315,
              -0.1636785697842508,
              0.12146335481963504,
              -0.009820964484934835,
              -0.08089967333288775,
              0.0680114525247303,
              -0.22170420973998006,
              0.06370053503714554,
              -0.18561024705601228,
              -0.004158816529264916,
              -0.234872749663463,
              0.09155016117210664,
              -0.0386022511355175,
              0.007962534518963369,
              0.11832340902804857,
              -0.03826295286489611,
              0.19269349272219524,
              -0.14625603674845655,
              0.07613263323496873,
              -0.3048880609097734,
              0.23028670892730574,
              -0.1399703628741726,
              0.039597677583383194,
              -0.11059341082688812,
              -0.04499094716831912,
              0.01624976431240936,
              -0.016218168138623763,
              0.06975841248905512,
              -0.20476343769644548,
              0.1716812697523996,
              -0.11957402699090557,
              0.10934146511615858,
              -0.16324182622596187,
              -0.03364227152992686,
              -0.07834030592829219,
              -0.058980209085940004,
              0.024471720285687074,
              -0.31313634542489893,
              0.08490643819700704,
              -0.025619482959760444,
              0.008552669074165072,
              -0.22675161490822723,
              0.0963809607412441,
              -0.008142469153152171,
              0.09101889237907311,
              0.012677163135260816,
              -0.049946109590696314,
              0.04878511562707749
            ],
            [
              -0.11857854622585613,
              0.19388304560344385,
              -0.19846491607594838,
              -0.035964953319944516,
              0.04697140595824936,
              0.7315290111906685,
              0.28478854216399924,
              0.6163100347080087,
              -0.023509975900495594,
              -0.19291067986482796,
              -0.08061841621085257,
              -0.548651862781818,
              0.12217360528210174,
              -0.3930880552111308,
              0.04540808325068315,
              -0.190318380031402,
              0.0811283004909078,
              -0.15687948811513777,
              -0.15723387203323302,
              -0.024706959646394324,
              0.8144533881951448,
              0.21901465451118987,
              -0.05854043911519889,
              0.26555566724392304,
              -0.07474405902475781,
              0.1391646283882231,
              -0.14897574926593832,
              -0.07204341932452453,
              -0.03565081457184152,
              0.14350522959013384,
              -0.07815959968732165,
              0.11689764719895049,
              0.06613627016743205,
              0.157565923544921,
              0.4432171485489062,
              0.3222473073018845,
              -0.05726455297995271,
              -0.07102108965738985,
              0.4917056755487936,
              0.17402387863355318,
              -0.03780179888777542,
              0.422812126588308,
              -0.006332853210233511,
              -0.13990217475422398,
              -0.08454020872972359,
              0.10647249541776645,
              -0.19143709283487828,
              -0.09302291511865834,
              -0.4491173571317879,
              0.13239689356603945,
              0.26929703716148273,
              -0.021507842899682064,
              0.11545663270949515,
              0.14430545862819225,
              0.11697872008237968,
              -0.11060858092899735,
              0.528619189699693,
              -0.02566413750018072,
              -0.08273042221256605,
              -0.20304074838630878,
              -0.0036672717961790174,
              -0.0381952437992656,
              -0.08651383201426133,
              -0.22846449443792732
            ],
            [
              0.0092536656367151,
              -0.1588198790620848,
              0.05171063566626818,
              0.10792712982957645,
              -0.10341820823765654,
              0.021172896333776035,
              -0.12533537334054318,
              0.19120455949492354,
              -0.12762941675754888,
              0.15781109993470605,
              -0.008058421661503464,
              0.08208286005506103,
              -0.13281063720996894,
              -0.04307104590263569,
              0.1718318511633718,
              -0.14286612979274685,
              0.008637435279095773,
              0.15513123074722296,
              0.0685875615119816,
              0.23280522650287538,
              -0.04460609909232214,
              0.044002541245652435,
              -0.16393829545665134,
              -0.07829843500733173,
              -0.159305275032542,
              0.2720750945229447,
              -0.06712216961260628,
              0.1801797573665215,
              0.05705804283652888,
              -0.1417614771680125,
              -0.15583099290485927,
              0.3516286527683263,
              0.08222670864792135,
              -0.29203413254716803,
              -0.06573115900469631,
              -0.25291660797099913,
              0.30759388520675274,
              -0.13646159684138248,
              0.09379707688594242,
              0.04220008486151632,
              0.28188283458138425,
              -0.07300764513416542,
              -0.261978190588065,
              0.06986738263838117,
              -0.11915153130601906,
              0.23048511298968416,
              0.06896859212452294,
              -0.09530961323212273,
              -0.19240436422447613,
              0.34133723866795646,
              0.10589286077590074,
              0.19678616031612237,
              -0.03181858761119109,
              -0.0799819683957395,
              0.08995396361521002,
              -0.1325930912270592,
              0.026590864961890667,
              -0.409593941385607,
              0.1623527905724194,
              -0.11315260686295739,
              0.23243819789068396,
              -0.2661432887563941,
              0.16295055252663299,
              0.04501011824612351
            ],
            [
              0.09972726630844428,
              -0.28926376394618253,
              0.08481096684612045,
              0.04277534749147082,
              -0.1395814810688691,
              0.1406916083565547,
              -0.18212571440867503,
              0.1746964723790416,
              0.05316959076592475,
              -0.06268959106450514,
              -0.13340506398919139,
              0.14321852607234076,
              -0.04582695562643018,
              0.23933574382399744,
              0.04135748568527945,
              0.004413974864025221,
              0.11417952184718047,
              0.032188716861715254,
              0.5236081042399928,
              -0.26198646695029065,
              0.23818381955961096,
              0.0006257233310631768,
              -0.06255475733793141,
              -0.13502255077659048,
              0.03438744136012243,
              -0.02144607346378138,
              -0.03301025038277473,
              -0.05334598334090438,
              -0.26484719114696864,
              0.06168295325610989,
              -0.3101336517018918,
              0.21215457956383046,
              0.04443086301234943,
              -0.12750769740956305,
              0.14529197272943065,
              0.025206543032960427,
              0.5405763939901311,
              0.03556804267062414,
              0.25242190398711606,
              -0.25633762646499764,
              0.23473298444665178,
              0.03898109858023792,
              0.007800777403833608,
              0.06614588706697881,
              -0.03710367893803794,
              0.1432618577251495,
              0.0417852766388473,
              0.39755327910873667,
              -0.31070155192215143,
              0.11688513903631483,
              -0.2799369325508858,
              0.07837174052098037,
              -0.0832860603663728,
              -0.000556065925492814,
              0.048492264901064175,
              0.014459105012479573,
              -0.03892749957937854,
              -0.3443522842385537,
              -0.00007234055291355685,
              0.04366562253669886,
              0.4565693335551629,
              -0.19757658108196224,
              0.23126956531778617,
              -0.11637459452780895
            ],
            [
              -0.21808783542538515,
              -0.15408709884600783,
              0.03259056526889176,
              -0.18649213405842713,
              0.04785509879697095,
              0.034896922942154664,
              0.3917246732462319,
              0.043377287190521314,
              -0.05760565922861071,
              0.08032401660108426,
              -0.38278943930291076,
              0.13620989137606346,
              -0.13409569641370048,
              -0.0089082942873106,
              -0.00762851769604087,
              -0.047230528616018355,
              0.111952998643711,
              -0.4702370226407604,
              0.28506907879036586,
              0.13691750336699055,
              0.2580518097257578,
              0.2058008545821876,
              0.5375014873636625,
              -0.2378621750313787,
              -0.20797314146867327,
              0.36178915442900267,
              -0.048480043659569046,
              0.019556664938327344,
              0.059502984497704234,
              0.2684304390996107,
              -0.1322683613508273,
              0.08659921513582258,
              0.06313033621314972,
              0.26923018754438527,
              0.17146850429968366,
              0.6054526606494838,
              0.4085717094309821,
              -0.12423116720147248,
              0.3058963585989722,
              -0.3737736610989059,
              0.5140775518413682,
              -0.24993710593814997,
              -0.15257261450415494,
              -0.2510893125977448,
              -0.37864590622536404,
              -0.1534093447216342,
              -0.117341355026245,
              -0.0050791625642832945,
              -0.029712799197227198,
              0.3444715806677934,
              -0.11584159985971879,
              0.29178162049773104,
              -0.4162721186425389,
              0.05972070231372592,
              -0.25302946314686464,
              0.08153292759178477,
              -0.17968626181291084,
              -0.13907662560402045,
              0.03845445934958425,
              -0.23021158807021067,
              0.16941309001124832,
              -0.18606526170047644,
              0.15742588095369522,
              -0.04916580982626846
            ],
            [
              0.19864215645467073,
              -0.08841996756745925,
              0.07232556497735163,
              0.015725184814416877,
              0.015863319126880084,
              -0.12947846741263502,
              0.1262339267436983,
              -0.07867589064804849,
              -0.14841162157305274,
              -0.0940120065776036,
              -0.1457688862725681,
              0.1388341579527115,
              -0.021186507665930065,
              0.04182174947025546,
              -0.08005776589428934,
              0.06865878547709527,
              -0.10350215880384601,
              0.1942807089701229,
              -0.047890538419357045,
              -0.00723481582842719,
              0.053499707654923574,
              -0.39277931210776285,
              0.06821552924900225,
              -0.31793252411520995,
              -0.4677241366474945,
              0.22976224106565057,
              -0.1919252846406621,
              -0.1002709948819089,
              -0.1584099248623758,
              -0.3635966292532285,
              0.05271266913335485,
              0.21690367303645036,
              0.09324594571038154,
              -0.15071731874585523,
              -0.2051607229230201,
              0.40481451206002106,
              -0.13310731992793362,
              -0.0006031906840864612,
              0.062361049708517184,
              0.06786022499517712,
              0.4605689303282953,
              0.07657584420339333,
              -0.16213979128601008,
              -0.3091931818090675,
              -0.03187005444909922,
              -0.027355165950639648,
              0.18566001821823003,
              0.10547603616404803,
              0.008883124633023673,
              -0.21125883488811828,
              -0.37452762694546476,
              0.09884085376712655,
              -0.17056040469524114,
              -0.04403996218451129,
              -0.22982663336787737,
              0.27994893237876134,
              0.09402226054623115,
              -0.046252811182131585,
              -0.08871020972696517,
              -0.3377803835209424,
              0.18894631948172896,
              -0.02749987333754922,
              0.41867544955381264,
              -0.3636801005347886
            ],
            [
              0.21118874569624962,
              -0.03482414451645426,
              0.002400984492475967,
              -0.18282176151670904,
              0.15903937745367522,
              0.19734210318662523,
              0.02322429566724748,
              0.15280010006444766,
              -0.2116320836417936,
              -0.0337333202823103,
              0.046053679967355966,
              0.07455644902450023,
              -0.1431366184579298,
              0.07564889322803162,
              -0.05399777275251025,
              0.03545799292034809,
              0.014989476861878133,
              0.1457393229504125,
              -0.2822149516212597,
              -0.0560481816142587,
              0.01712655682285236,
              -0.37235692667707154,
              -0.1744150572731777,
              0.048641670211414786,
              0.4150018437138354,
              -0.35867996760230403,
              0.21708544290586373,
              -0.002327600025092207,
              -0.1333816893219699,
              0.20425649289077585,
              0.039259672363060466,
              0.23724139765340332,
              0.10122359108161956,
              -0.019015989995033428,
              -0.01876881627484807,
              -0.06460727883192069,
              -0.15255318851207114,
              0.08270393775627119,
              -0.08643624551384908,
              -0.19133307487718892,
              0.04137211551480021,
              -0.32073834599228906,
              0.05172802777760543,
              -0.1504365249687057,
              0.22836007139879844,
              -0.11055726558918891,
              -0.08867047234461777,
              -0.034426962102996714,
              0.07868521476973966,
              -0.2331388428217683,
              -0.0250519512940514,
              0.2048947757332967,
              -0.08077766950640493,
              0.002407907911782571,
              -0.06038240578954343,
              0.19418421860698068,
              -0.10460499060804575,
              0.03593233979749559,
              -0.11285003286093193,
              0.028991223436329223,
              0.17418150856259595,
              -0.002431889753453883,
              -0.04256230008165052,
              -0.04032599927024606
            ],
            [
              0.13678098203499953,
              -0.10657748455822671,
              0.28451043046793595,
              -0.1977274017842341,
              0.009582133908441957,
              -0.5263927206982308,
              0.3951046477598265,
              -0.33645768550237387,
              0.2550314038286411,
              -0.04912682159140741,
              0.11704953581535064,
              -0.21707476363521244,
              -0.19663285445708023,
              0.2919443219321172,
              0.0010995523235300256,
              0.23112013621573305,
              -0.060274900661637834,
              0.12771161722053975,
              -0.06051972995626296,
              0.23064532462928936,
              0.1585529234785144,
              0.35498690254583937,
              -0.08309285211999107,
              -0.15450927967106462,
              0.2517032937621306,
              -0.15052879743740974,
              0.07407803817303169,
              -0.045749250428309296,
              0.08001214927923761,
              -0.02806532567515453,
              -0.3052289069739071,
              0.18560151477313286,
              0.21057605073707128,
              0.20354057257165437,
              -0.3649026097719498,
              0.42562763176962765,
              0.016825752634920477,
              0.08706535838386056,
              -0.08114953411639997,
              0.11934583974083786,
              0.3207704281878362,
              0.16577860525089796,
              0.2615010408097017,
              -0.2598793413310886,
              0.35302282093782694,
              -0.26934465353430226,
              0.2528028719519062,
              -0.22212322361030157,
              -0.054286014862658855,
              -0.1283186966887519,
              0.06336629759924456,
              0.2520807159731313,
              0.057447003771026565,
              0.15533887716248923,
              -0.06878922794133677,
              0.1481368060924995,
              -0.0461315222032455,
              0.17241538987438515,
              -0.021573771933495963,
              -0.024420950884672152,
              0.06197686231940536,
              -0.05492158617071956,
              0.16054170961833675,
              0.07851727824059682
            ],
            [
              0.010456913311308333,
              -0.057592836937122964,
              0.08305807933173762,
              -0.22665781705998886,
              0.24273982698965418,
              -0.1297896954907661,
              -0.001323676228514425,
              0.007166282401192663,
              0.16997199939949667,
              -0.012548209212716018,
              0.23226490765258911,
              -0.15275555047575862,
              -0.16100683055377346,
              0.03743934011294672,
              -0.17772314869993755,
              0.1198826718248762,
              -0.11992431114158178,
              0.014480982911732132,
              -0.28408746103919363,
              -0.04242857188211245,
              0.1453861883118494,
              -0.08871610694100542,
              0.11598401039354661,
              -0.16963587531555807,
              0.27455793806625717,
              -0.23190598362946444,
              0.07181843519971655,
              -0.18401256952291814,
              0.011758658806707605,
              -0.18875799625021136,
              0.05330189574979427,
              -0.09850204799427786,
              -0.00590799657291822,
              0.13992108966408734,
              -0.2116751070451867,
              -0.05216140833396332,
              -0.0336207200968727,
              0.43738727407985595,
              0.016118095011437454,
              0.1843385591510815,
              -0.08635352272243912,
              0.04019895127814978,
              -0.3231054387201774,
              -0.10896603147498306,
              0.031293560651657504,
              -0.17684782762496454,
              0.07216005228322236,
              -0.1298032403563344,
              -0.21127296895366612,
              -0.09113382274290208,
              0.22789950688754707,
              0.2512915093470109,
              0.05592235092465203,
              0.10384427458325529,
              -0.08224585062054089,
              0.32131685110072655,
              -0.11072344751658762,
              0.27888471485961136,
              -0.12364767690357374,
              0.08030834316139947,
              -0.026733471161420268,
              -0.024356190641546864,
              -0.0018147431852055824,
              -0.10211888145968415
            ],
            [
              -0.22930676426167934,
              0.175561015900286,
              0.4886200428553535,
              -0.38716298122575926,
              -0.10554976165370067,
              -0.613365828506204,
              0.18978828314008234,
              -0.19225913526013635,
              0.1901463440878643,
              -0.018131246805355872,
              0.05251495612365298,
              -0.15400737760197394,
              -0.097104216194002,
              -0.03352349242609165,
              -0.2293538283233442,
              0.07138303633204708,
              -0.2637252943154645,
              0.1064258928852988,
              -0.2347239435525856,
              0.23152228446213347,
              0.391444270773505,
              0.5195202518566947,
              0.6484011210895331,
              -0.2780979142837203,
              -0.20140185743728023,
              -0.3625034454082143,
              0.6293107138247352,
              -0.29225387438151584,
              0.4026093182829603,
              -0.42977742625461124,
              -0.10494602547883036,
              -0.23376696712705214,
              0.3546879849110363,
              0.5639512246754687,
              -0.041288508324029145,
              0.19077966455416379,
              -0.1826168931684057,
              -0.16946967429520873,
              -0.3168810791088528,
              0.3975959452011662,
              -0.0596600764626648,
              0.06518763841933638,
              -0.18672897461147966,
              -0.10856119689487982,
              0.31185211969175364,
              -0.4196530924724446,
              0.16079349436450097,
              -0.1257982347370123,
              0.11417292218408988,
              -0.2062200345611775,
              0.3390953506707109,
              0.48976747992167985,
              -0.20577724179894274,
              0.22971810013351376,
              -0.31405743121306123,
              0.12689908306277548,
              -0.10112131926326191,
              -0.4342938210588822,
              -0.4090907868586156,
              0.07714882468694811,
              -0.3353854540252299,
              0.027693215872938128,
              -0.006956533541589858,
              0.10452164446266249
            ],
            [
              -0.22308617142930115,
              0.24120209689871674,
              -0.05701184796835308,
              0.05591795093546655,
              0.16088604961951283,
              -0.14815560104886635,
              0.2848146403663254,
              -0.07660744844132275,
              0.18358749467715146,
              -0.17924589571547764,
              0.024721744976120882,
              0.021828307972076008,
              0.014757141036431104,
              -0.5053501614144654,
              0.1719635368193636,
              -0.0686254028407396,
              -0.09987611618839891,
              -0.026046125749602224,
              -0.4194837289110245,
              0.3076302924430171,
              -0.017739447469588922,
              0.34012998838387437,
              -0.15846300801245394,
              -0.13443264400472926,
              0.1343665614462315,
              0.13499707831731333,
              0.2373433628987712,
              -0.0200402759022942,
              0.39514300296158283,
              -0.38617545025975125,
              0.16998971316175437,
              -0.055536072488963396,
              0.15538987190442913,
              0.38371147972253034,
              -0.11590139631936462,
              0.3206319307582762,
              -0.0003719217439074248,
              0.1080215485738728,
              -0.07358985670719717,
              0.06467782986083095,
              -0.1683004914408184,
              -0.03194359438636843,
              -0.3585056788479477,
              -0.011303267266588892,
              -0.27997121055168794,
              0.0523774593384667,
              -0.0870008616119631,
              -0.3014327405626757,
              0.18831790612797655,
              -0.026928187444507572,
              0.41767895336600447,
              -0.10980362521217221,
              -0.14435905339967164,
              0.021930738801531242,
              -0.16241836121079767,
              0.142810107695574,
              0.013827250316208522,
              -0.07983026489477549,
              -0.13368378074567464,
              0.0018359355114265948,
              -0.19806319981623835,
              0.22294435420677666,
              -0.17106355639595378,
              -0.18899786119446915
            ],
            [
              -0.22116535928638223,
              -0.012454956080789758,
              -0.1137453148287048,
              -0.16043547320500592,
              0.0679451479115276,
              -0.21921102385823837,
              0.2802648566618209,
              0.09877191465339463,
              0.09632260326371898,
              -0.17935129218597004,
              -0.1695172934292273,
              -0.4280805186388343,
              0.044590391440485676,
              -0.06932151187024789,
              -0.25799498310110935,
              0.05150645946107205,
              -0.14302892336596218,
              -0.03208454645883633,
              0.0960449106056154,
              0.10253973086805222,
              -0.05801386219320728,
              0.46660967064802683,
              -0.4319834096531341,
              0.17088217475558112,
              -0.04773903610680672,
              0.0325660245411898,
              -0.3440704132340106,
              -0.23223565935045937,
              -0.09959630058459588,
              -0.07703959847011552,
              -0.018607208451587177,
              -0.13925657824066698,
              0.352421486158771,
              -0.40621296362826587,
              -0.11961777841370083,
              0.2768608276080707,
              0.31316217617946934,
              0.17481314735416978,
              -0.020812996508968215,
              0.17158372415143983,
              -0.10923064345275936,
              -0.05199467661532388,
              -0.6655666894890602,
              -0.02347730083152995,
              0.13300250238944425,
              -0.2935486016627274,
              0.09827036971959549,
              -0.24276213622397816,
              -0.2208966116491392,
              -0.3332075598451195,
              0.1165774889512059,
              -0.08314199763992544,
              0.3546156338210344,
              -0.16079336989780768,
              -0.2603227790002913,
              0.04554176851351598,
              -0.1454037800617235,
              0.37651621310638816,
              -0.12085051202802173,
              0.11517072148956976,
              -0.12554614288711208,
              -0.009423578508028697,
              -0.10863346017548318,
              0.06488489363589596
            ],
            [
              -0.2677128580066476,
              0.11301982201003422,
              -0.2923388684503121,
              -0.13601294982009968,
              -0.07797294179621454,
              0.0452500929434473,
              0.345762639651058,
              -0.22622924028015495,
              0.2915099845572015,
              -0.23672166299919734,
              -0.057751483550483394,
              0.12493359036337102,
              0.16025942308865693,
              -0.12859385130088233,
              0.0338749292522551,
              -0.10018579759904288,
              -0.08235305902246892,
              -0.03383018854228351,
              -0.058251893104179595,
              0.1002852150085549,
              0.06792741569707436,
              0.3291072026058798,
              0.10775473729597074,
              0.032003680051560617,
              -0.04391523736646586,
              0.12579427243560412,
              0.013160708879025304,
              0.05260219491666591,
              -0.03384598603660917,
              -0.31288939890236006,
              0.20140707872285826,
              -0.3272484631551477,
              0.36839633933622384,
              -0.11792554012151944,
              0.03011898472348276,
              0.28997925685480774,
              0.02228892436703182,
              -0.04045790550480091,
              -0.132311303441931,
              0.2646040127191151,
              -0.0029392457665517527,
              0.30337810267197096,
              -0.0007615194995140269,
              0.08593039340035234,
              -0.12765974158649046,
              0.04350446080785527,
              -0.08164917915713206,
              -0.23864933679007688,
              0.19806612307396834,
              -0.3039245527435986,
              0.14437380652227086,
              -0.14694673582069032,
              0.017923381836674798,
              0.03580529491003356,
              0.07245819649998927,
              0.07114073708390939,
              0.3493462981717109,
              0.04409709052821333,
              -0.13945472778596377,
              0.02834513787967213,
              -0.14932652446886902,
              0.09673199033279542,
              -0.17294749786741334,
              -0.03304527394048454
            ],
            [
              -0.1455842324212289,
              0.01684433877377626,
              0.006419024279266594,
              0.2439287190101072,
              -0.051786062713527446,
              0.1566194567139935,
              -0.032741011884796785,
              0.03386350012841729,
              0.012041312981775522,
              -0.24309962567364884,
              0.05075601724338497,
              -0.32127177892574976,
              0.10761860129496577,
              -0.13929914396316245,
              0.0779658970468233,
              -0.06337507438670528,
              -0.014594139460623727,
              0.060912264820658306,
              -0.2625792886526095,
              0.13446169459445564,
              -0.13237725683489138,
              0.2809140849982531,
              -0.18583794078213586,
              0.16284658164532662,
              -0.08015609394426014,
              0.0503231433160292,
              -0.13024732486444646,
              -0.0019093016110497605,
              0.030106422361820925,
              -0.014842082449160628,
              0.09123647540747179,
              -0.11280629058238144,
              0.27277072128655394,
              -0.2035632829533382,
              0.13665075575760596,
              -0.06876700050365571,
              0.04426511628478389,
              -0.018491863600458878,
              -0.05153559863689455,
              0.01214500366092455,
              -0.08234118474871695,
              0.12254140894333666,
              -0.20260359282387175,
              0.11834208751971176,
              -0.0782074152163349,
              0.029997307426203493,
              -0.04579842487208868,
              -0.07133829745637578,
              -0.02430172708792226,
              -0.2712764093115667,
              0.1921828482774397,
              -0.17831441608533394,
              0.24107731439928384,
              -0.2532766497387147,
              -0.025200377677831627,
              -0.12371736828085904,
              0.07149088203185475,
              -0.1394486197404286,
              -0.004971144590379016,
              0.025699771291306888,
              -0.15467097723229584,
              0.08816673024920348,
              -0.04394459211999573,
              0.06813824508710047
            ],
            [
              -0.052939392400566956,
              0.2107542032405676,
              -0.0714631455971542,
              -0.03180008718263178,
              -0.43454928491224487,
              -0.04594645386443125,
              0.026927412128631194,
              0.08037846691794524,
              0.054841001687472905,
              0.014717023934537082,
              0.05303349964347761,
              -0.1641241348133387,
              0.03449753918302066,
              0.06859972236596192,
              0.021831973794665196,
              -0.1268053743560804,
              0.08448076867897636,
              -0.15889372651249276,
              0.2473474555159841,
              -0.051136664635170546,
              0.010262937196468803,
              0.2638277048309904,
              -0.37028525608952756,
              -0.024618235717326704,
              -0.2668545416864355,
              -0.21537772098326233,
              0.1496076814642142,
              -0.039571909174717514,
              0.06396409895502544,
              0.05970016694440472,
              -0.23776139388542805,
              -0.3335143274520799,
              -0.008328411859503488,
              -0.0008089034563317276,
              0.08632877262127761,
              0.0876999058327342,
              0.16400969382918718,
              -0.12417476477646401,
              0.14006450437620865,
              0.18197986805321062,
              -0.2191938283329966,
              0.13860591246693255,
              -0.11212584194094234,
              0.25200554203115083,
              0.0604776082215122,
              0.1949310961213964,
              -0.07460230061974779,
              0.25788161456176834,
              -0.1398361140749653,
              0.22490735998537476,
              0.06538500835304746,
              -0.038767895027045925,
              0.19837202199273649,
              -0.07753374551974726,
              0.08460591384513996,
              -0.14529170114212162,
              0.25894437797378134,
              0.159123027599337,
              -0.018497921352850187,
              0.015225624194969692,
              -0.4070866873248465,
              0.005640545891747702,
              -0.24819682860528836,
              0.35638023263316204
            ],
            [
              0.003658749612855169,
              0.053577071710639135,
              0.028806734776645467,
              0.4564088137638433,
              -0.07416649057452881,
              0.10395916789405497,
              0.03201444162942326,
              -0.04276464232906187,
              -0.16408188584092764,
              0.02053142863414078,
              -0.1900428080787282,
              -0.37731749244310686,
              -0.018650041147963113,
              -0.4719231132234546,
              0.44770045903901695,
              -0.1365218230962207,
              -0.0155616357735105,
              -0.009274344680808658,
              0.3595372022332822,
              0.2172666950956817,
              -0.011699105635955763,
              0.6296010426816508,
              -0.008802775855169533,
              0.10402873527730032,
              -0.4417296866472043,
              0.2429968745296683,
              -0.8824961922320574,
              0.06220341316265264,
              -0.23034377907703293,
              -0.21389528074278236,
              0.12597838069184494,
              -0.05456923875919804,
              0.778699174199,
              -0.19508294534802978,
              -0.12896777528436598,
              0.11144590398168158,
              0.5500346336044416,
              -0.20956410627406122,
              -0.20566941970161037,
              0.33502321977554067,
              -0.0029547462644163576,
              -0.05341136006735776,
              -0.5323181521339247,
              0.023120202353069327,
              -0.025464657366542312,
              0.044193354656619596,
              -0.1424537723459634,
              0.06733213659906677,
              -0.0972806513057402,
              0.38742036504714644,
              0.2911058879022514,
              -0.1119506015237964,
              0.19005207060858118,
              0.028472365857796264,
              0.16361387434984975,
              0.02465660907118552,
              0.293101311089023,
              -0.6107601066372901,
              0.13983295940342946,
              0.0029510038279198575,
              -0.057613784367532825,
              -0.023119140310724623,
              -0.0435720846487228,
              0.18889847873209725
            ],
            [
              -0.04732984304563762,
              0.029185250746804066,
              -0.07916379986485968,
              0.1999777612645408,
              -0.1674839217826109,
              0.09762694166638335,
              -0.2904763391118894,
              0.0047960936530462165,
              -0.12386578511292154,
              0.016711024064625563,
              -0.1320640824838022,
              0.05081844242557385,
              0.048634521103255425,
              -0.16324046489875235,
              0.08298953838831015,
              -0.025068149647658446,
              0.23913487486378093,
              -0.0893419978411654,
              0.2626817676455417,
              0.024436370313949983,
              -0.1701802613381513,
              -0.007646481337448546,
              -0.18497027400310237,
              0.00665456836589836,
              -0.13455124016093156,
              -0.005825370861922987,
              -0.2591313758354302,
              0.09309845555296913,
              -0.0894463399653255,
              -0.10229603666529746,
              0.043734440763532015,
              0.1270690249374651,
              0.2598428577435407,
              -0.04753702668247691,
              0.10673239070165368,
              -0.3729915331134169,
              0.22896644974860195,
              -0.1661374217735925,
              0.17939503595604572,
              0.0282745096657964,
              0.014625815316264536,
              -0.0726840718864497,
              -0.30593923583841,
              0.0010094969464116456,
              -0.1786226516643996,
              0.024408830030144425,
              -0.049554017793543695,
              0.1925243865640827,
              0.03243258175022949,
              0.09240727239691557,
              -0.08795910451093927,
